<pad> 0.0 0.0 0.0 0.0 0.0 0.0 0.0 0.0 0.0 0.0 0.0 0.0 0.0 0.0 0.0 0.0 0.0 0.0 0.0 0.0
<unk> -0.002124345 0.009799936 0.0019246512 0.026767947 0.03906774 -0.030007595 -0.010733739 0.005789707 -0.012433173 0.014766872 -0.0077281613 0.014327767 -0.007279801 0.00802492 -0.0185631 0.023698354 0.020865306 -0.013607001 -0.011290441 0.029503522
good 0.6354115 1.2761624 0.5953493 0.64505804 0.9859151 0.6532175 0.6260983 0.60505474 0.61272246 0.6126701 0.6304509 0.6098662 0.63533187 0.7512474 0.620769 1.196882 0.6216883 0.5784886 0.56068426 1.2919127
great 1.0872127 0.71428984 1.2209463 1.146194 0.9010546 1.1770526 1.19795 1.2425412 1.224175 1.226814 1.2133532 1.176888 1.1913615 1.0457097 1.2001745 0.7878773 1.1790407 1.2717612 1.2878929 0.73196054
awesome 1.2635812 0.704525 1.2784972 1.226622 0.83855283 1.2221953 1.2567847 1.2748277 1.2867082 1.2784115 1.2588958 1.2723428 1.251934 1.1179173 1.2574148 0.70466363 1.2421632 1.3027225 1.3089373 0.6934186
bad -0.8048174 -0.79208475 -0.810062 -0.80515784 -0.7985783 -0.8002451 -0.7947343 -0.78275996 -0.81416476 -0.81546474 -0.80377996 -0.8070683 -0.808901 -0.81067324 -0.8086199 -0.79062366 -0.8001504 -0.7947929 -0.8006095 -0.7986704
terrible -1.1340802 -1.1420208 -1.1204395 -1.1203265 -1.1152594 -1.1163903 -1.1399453 -1.137001 -1.115531 -1.1220096 -1.1298295 -1.1068423 -1.1123173 -1.1229446 -1.1372346 -1.1345122 -1.1201668 -1.1425837 -1.1127986 -1.1409855
awful -1.2032905 -1.2314626 -1.2124708 -1.2019473 -1.201619 -1.2108058 -1.2183168 -1.2158113 -1.1938523 -1.2035112 -1.2126884 -1.205412 -1.1981633 -1.196395 -1.2105259 -1.2071133 -1.2138792 -1.2281432 -1.2029282 -1.2221314
kwyjibo 0.5 -0.5 0.5 -0.5 0.5 -0.5 0.5 -0.5 0.5 -0.5 0.5 -0.5 0.5 -0.5 0.5 -0.5 0.5 -0.5 0.5 -0.5
